digraph Tree {
node [shape=box, style="filled, rounded", color="black", fontname="helvetica"] ;
edge [fontname="helvetica"] ;
0 [label=<capital-gain &le; 5119.0<br/>gini = 0.366<br/>samples = 32561<br/>value = [24720, 7841]>, fillcolor="#eda978"] ;
1 [label=<relationship &le; 0.5<br/>gini = 0.326<br/>samples = 30983<br/>value = [24638, 6345]>, fillcolor="#eca16c"] ;
0 -> 1 [labeldistance=2.5, labelangle=45, headlabel="True"] ;
2 [label=<educational_num &le; 12.5<br/>gini = 0.48<br/>samples = 12122<br/>value = [7264, 4858]>, fillcolor="#f6d5bd"] ;
1 -> 2 ;
3 [label=<educational_num &le; 8.5<br/>gini = 0.417<br/>samples = 8766<br/>value = [6170, 2596]>, fillcolor="#f0b68c"] ;
2 -> 3 ;
4 [label=<capital-loss &le; 1791.5<br/>gini = 0.186<br/>samples = 1459<br/>value = [1308, 151]>, fillcolor="#e89050"] ;
3 -> 4 ;
5 [label=<hours-per-week &le; 49.5<br/>gini = 0.173<br/>samples = 1428<br/>value = [1291, 137]>, fillcolor="#e88e4e"] ;
4 -> 5 ;
6 [label=<age &le; 36.5<br/>gini = 0.149<br/>samples = 1185<br/>value = [1089, 96]>, fillcolor="#e78c4a"] ;
5 -> 6 ;
7 [label=<educational_num &le; 7.5<br/>gini = 0.059<br/>samples = 329<br/>value = [319, 10]>, fillcolor="#e6853f"] ;
6 -> 7 ;
8 [label=<fnlwgt &le; 180797.5<br/>gini = 0.045<br/>samples = 301<br/>value = [294, 7]>, fillcolor="#e6843e"] ;
7 -> 8 ;
9 [label=<gini = 0.088<br/>samples = 109<br/>value = [104, 5]>, fillcolor="#e68743"] ;
8 -> 9 ;
10 [label=<gini = 0.021<br/>samples = 192<br/>value = [190, 2]>, fillcolor="#e5823b"] ;
8 -> 10 ;
11 [label=<occupation &le; 6.5<br/>gini = 0.191<br/>samples = 28<br/>value = [25, 3]>, fillcolor="#e89051"] ;
7 -> 11 ;
12 [label=<gini = 0.111<br/>samples = 17<br/>value = [16, 1]>, fillcolor="#e78945"] ;
11 -> 12 ;
13 [label=<gini = 0.298<br/>samples = 11<br/>value = [9, 2]>, fillcolor="#eb9d65"] ;
11 -> 13 ;
14 [label=<educational_num &le; 5.5<br/>gini = 0.181<br/>samples = 856<br/>value = [770, 86]>, fillcolor="#e88f4f"] ;
6 -> 14 ;
15 [label=<workclass &le; 3.5<br/>gini = 0.107<br/>samples = 475<br/>value = [448, 27]>, fillcolor="#e78945"] ;
14 -> 15 ;
16 [label=<gini = 0.078<br/>samples = 394<br/>value = [378, 16]>, fillcolor="#e68641"] ;
15 -> 16 ;
17 [label=<gini = 0.235<br/>samples = 81<br/>value = [70, 11]>, fillcolor="#e99558"] ;
15 -> 17 ;
18 [label=<age &le; 65.5<br/>gini = 0.262<br/>samples = 381<br/>value = [322, 59]>, fillcolor="#ea985d"] ;
14 -> 18 ;
19 [label=<gini = 0.29<br/>samples = 335<br/>value = [276, 59]>, fillcolor="#eb9c63"] ;
18 -> 19 ;
20 [label=<gini = 0.0<br/>samples = 46<br/>value = [46, 0]>, fillcolor="#e58139"] ;
18 -> 20 ;
21 [label=<fnlwgt &le; 325810.5<br/>gini = 0.281<br/>samples = 243<br/>value = [202, 41]>, fillcolor="#ea9b61"] ;
5 -> 21 ;
22 [label=<fnlwgt &le; 249305.5<br/>gini = 0.257<br/>samples = 218<br/>value = [185, 33]>, fillcolor="#ea975c"] ;
21 -> 22 ;
23 [label=<occupation &le; 3.5<br/>gini = 0.282<br/>samples = 188<br/>value = [156, 32]>, fillcolor="#ea9b62"] ;
22 -> 23 ;
24 [label=<gini = 0.375<br/>samples = 60<br/>value = [45, 15]>, fillcolor="#eeab7b"] ;
23 -> 24 ;
25 [label=<gini = 0.23<br/>samples = 128<br/>value = [111, 17]>, fillcolor="#e99457"] ;
23 -> 25 ;
26 [label=<age &le; 49.5<br/>gini = 0.064<br/>samples = 30<br/>value = [29, 1]>, fillcolor="#e68540"] ;
22 -> 26 ;
27 [label=<gini = 0.0<br/>samples = 20<br/>value = [20, 0]>, fillcolor="#e58139"] ;
26 -> 27 ;
28 [label=<gini = 0.18<br/>samples = 10<br/>value = [9, 1]>, fillcolor="#e88f4f"] ;
26 -> 28 ;
29 [label=<native-country &le; 34.5<br/>gini = 0.435<br/>samples = 25<br/>value = [17, 8]>, fillcolor="#f1bc96"] ;
21 -> 29 ;
30 [label=<gini = 0.153<br/>samples = 12<br/>value = [11, 1]>, fillcolor="#e78c4b"] ;
29 -> 30 ;
31 [label=<gini = 0.497<br/>samples = 13<br/>value = [6, 7]>, fillcolor="#e3f1fb"] ;
29 -> 31 ;
32 [label=<capital-loss &le; 1989.5<br/>gini = 0.495<br/>samples = 31<br/>value = [17, 14]>, fillcolor="#fae9dc"] ;
4 -> 32 ;
33 [label=<gini = 0.219<br/>samples = 16<br/>value = [2, 14]>, fillcolor="#55abe9"] ;
32 -> 33 ;
34 [label=<gini = 0.0<br/>samples = 15<br/>value = [15, 0]>, fillcolor="#e58139"] ;
32 -> 34 ;
35 [label=<age &le; 35.5<br/>gini = 0.445<br/>samples = 7307<br/>value = [4862, 2445]>, fillcolor="#f2c09d"] ;
3 -> 35 ;
36 [label=<age &le; 29.5<br/>gini = 0.334<br/>samples = 2336<br/>value = [1842, 494]>, fillcolor="#eca36e"] ;
35 -> 36 ;
37 [label=<age &le; 24.5<br/>gini = 0.244<br/>samples = 983<br/>value = [843, 140]>, fillcolor="#e9965a"] ;
36 -> 37 ;
38 [label=<hours-per-week &le; 47.0<br/>gini = 0.11<br/>samples = 240<br/>value = [226, 14]>, fillcolor="#e78945"] ;
37 -> 38 ;
39 [label=<fnlwgt &le; 232486.0<br/>gini = 0.042<br/>samples = 187<br/>value = [183, 4]>, fillcolor="#e6843d"] ;
38 -> 39 ;
40 [label=<gini = 0.016<br/>samples = 125<br/>value = [124, 1]>, fillcolor="#e5823b"] ;
39 -> 40 ;
41 [label=<gini = 0.092<br/>samples = 62<br/>value = [59, 3]>, fillcolor="#e68743"] ;
39 -> 41 ;
42 [label=<occupation &le; 8.5<br/>gini = 0.306<br/>samples = 53<br/>value = [43, 10]>, fillcolor="#eb9e67"] ;
38 -> 42 ;
43 [label=<gini = 0.149<br/>samples = 37<br/>value = [34, 3]>, fillcolor="#e78c4a"] ;
42 -> 43 ;
44 [label=<gini = 0.492<br/>samples = 16<br/>value = [9, 7]>, fillcolor="#f9e3d3"] ;
42 -> 44 ;
45 [label=<educational_num &le; 9.5<br/>gini = 0.282<br/>samples = 743<br/>value = [617, 126]>, fillcolor="#ea9b61"] ;
37 -> 45 ;
46 [label=<occupation &le; 8.0<br/>gini = 0.223<br/>samples = 423<br/>value = [369, 54]>, fillcolor="#e99356"] ;
45 -> 46 ;
47 [label=<gini = 0.198<br/>samples = 297<br/>value = [264, 33]>, fillcolor="#e89152"] ;
46 -> 47 ;
48 [label=<gini = 0.278<br/>samples = 126<br/>value = [105, 21]>, fillcolor="#ea9a61"] ;
46 -> 48 ;
49 [label=<fnlwgt &le; 132506.0<br/>gini = 0.349<br/>samples = 320<br/>value = [248, 72]>, fillcolor="#eda672"] ;
45 -> 49 ;
50 [label=<gini = 0.215<br/>samples = 90<br/>value = [79, 11]>, fillcolor="#e99355"] ;
49 -> 50 ;
51 [label=<gini = 0.39<br/>samples = 230<br/>value = [169, 61]>, fillcolor="#eeae80"] ;
49 -> 51 ;
52 [label=<capital-loss &le; 1794.0<br/>gini = 0.386<br/>samples = 1353<br/>value = [999, 354]>, fillcolor="#eeae7f"] ;
36 -> 52 ;
53 [label=<educational_num &le; 9.5<br/>gini = 0.374<br/>samples = 1310<br/>value = [984, 326]>, fillcolor="#eeab7b"] ;
52 -> 53 ;
54 [label=<hours-per-week &le; 52.5<br/>gini = 0.322<br/>samples = 724<br/>value = [578, 146]>, fillcolor="#eca16b"] ;
53 -> 54 ;
55 [label=<gini = 0.285<br/>samples = 610<br/>value = [505, 105]>, fillcolor="#ea9b62"] ;
54 -> 55 ;
56 [label=<gini = 0.461<br/>samples = 114<br/>value = [73, 41]>, fillcolor="#f4c8a8"] ;
54 -> 56 ;
57 [label=<hours-per-week &le; 47.5<br/>gini = 0.426<br/>samples = 586<br/>value = [406, 180]>, fillcolor="#f1b991"] ;
53 -> 57 ;
58 [label=<gini = 0.397<br/>samples = 384<br/>value = [279, 105]>, fillcolor="#efb084"] ;
57 -> 58 ;
59 [label=<gini = 0.467<br/>samples = 202<br/>value = [127, 75]>, fillcolor="#f4cbae"] ;
57 -> 59 ;
60 [label=<hours-per-week &le; 43.5<br/>gini = 0.454<br/>samples = 43<br/>value = [15, 28]>, fillcolor="#a3d2f3"] ;
52 -> 60 ;
61 [label=<capital-loss &le; 1989.5<br/>gini = 0.499<br/>samples = 23<br/>value = [12, 11]>, fillcolor="#fdf5ef"] ;
60 -> 61 ;
62 [label=<gini = 0.153<br/>samples = 12<br/>value = [1, 11]>, fillcolor="#4ba6e7"] ;
61 -> 62 ;
63 [label=<gini = 0.0<br/>samples = 11<br/>value = [11, 0]>, fillcolor="#e58139"] ;
61 -> 63 ;
64 [label=<fnlwgt &le; 158808.5<br/>gini = 0.255<br/>samples = 20<br/>value = [3, 17]>, fillcolor="#5caeea"] ;
60 -> 64 ;
65 [label=<gini = 0.18<br/>samples = 10<br/>value = [1, 9]>, fillcolor="#4fa8e8"] ;
64 -> 65 ;
66 [label=<gini = 0.32<br/>samples = 10<br/>value = [2, 8]>, fillcolor="#6ab6ec"] ;
64 -> 66 ;
67 [label=<capital-loss &le; 1782.5<br/>gini = 0.477<br/>samples = 4971<br/>value = [3020, 1951]>, fillcolor="#f6d2b9"] ;
35 -> 67 ;
68 [label=<hours-per-week &le; 34.5<br/>gini = 0.468<br/>samples = 4735<br/>value = [2971, 1764]>, fillcolor="#f4ccaf"] ;
67 -> 68 ;
69 [label=<educational_num &le; 9.5<br/>gini = 0.185<br/>samples = 427<br/>value = [383, 44]>, fillcolor="#e88f50"] ;
68 -> 69 ;
70 [label=<age &le; 61.5<br/>gini = 0.107<br/>samples = 264<br/>value = [249, 15]>, fillcolor="#e78945"] ;
69 -> 70 ;
71 [label=<gini = 0.162<br/>samples = 135<br/>value = [123, 12]>, fillcolor="#e88d4c"] ;
70 -> 71 ;
72 [label=<gini = 0.045<br/>samples = 129<br/>value = [126, 3]>, fillcolor="#e6843e"] ;
70 -> 72 ;
73 [label=<hours-per-week &le; 6.5<br/>gini = 0.293<br/>samples = 163<br/>value = [134, 29]>, fillcolor="#eb9c64"] ;
69 -> 73 ;
74 [label=<gini = 0.473<br/>samples = 13<br/>value = [8, 5]>, fillcolor="#f5d0b5"] ;
73 -> 74 ;
75 [label=<gini = 0.269<br/>samples = 150<br/>value = [126, 24]>, fillcolor="#ea995f"] ;
73 -> 75 ;
76 [label=<educational_num &le; 9.5<br/>gini = 0.48<br/>samples = 4308<br/>value = [2588, 1720]>, fillcolor="#f6d5bd"] ;
68 -> 76 ;
77 [label=<occupation &le; 3.5<br/>gini = 0.452<br/>samples = 2401<br/>value = [1572, 829]>, fillcolor="#f3c3a1"] ;
76 -> 77 ;
78 [label=<gini = 0.475<br/>samples = 1038<br/>value = [636, 402]>, fillcolor="#f5d1b6"] ;
77 -> 78 ;
79 [label=<gini = 0.43<br/>samples = 1363<br/>value = [936, 427]>, fillcolor="#f1ba93"] ;
77 -> 79 ;
80 [label=<workclass &le; 4.5<br/>gini = 0.498<br/>samples = 1907<br/>value = [1016, 891]>, fillcolor="#fcefe7"] ;
76 -> 80 ;
81 [label=<gini = 0.5<br/>samples = 1616<br/>value = [812, 804]>, fillcolor="#fffefd"] ;
80 -> 81 ;
82 [label=<gini = 0.419<br/>samples = 291<br/>value = [204, 87]>, fillcolor="#f0b78d"] ;
80 -> 82 ;
83 [label=<capital-loss &le; 1989.5<br/>gini = 0.329<br/>samples = 236<br/>value = [49, 187]>, fillcolor="#6db7ec"] ;
67 -> 83 ;
84 [label=<capital-loss &le; 1894.5<br/>gini = 0.066<br/>samples = 176<br/>value = [6, 170]>, fillcolor="#40a0e6"] ;
83 -> 84 ;
85 [label=<age &le; 59.5<br/>gini = 0.023<br/>samples = 87<br/>value = [1, 86]>, fillcolor="#3b9ee5"] ;
84 -> 85 ;
86 [label=<gini = 0.0<br/>samples = 77<br/>value = [0, 77]>, fillcolor="#399de5"] ;
85 -> 86 ;
87 [label=<gini = 0.18<br/>samples = 10<br/>value = [1, 9]>, fillcolor="#4fa8e8"] ;
85 -> 87 ;
88 [label=<age &le; 56.5<br/>gini = 0.106<br/>samples = 89<br/>value = [5, 84]>, fillcolor="#45a3e7"] ;
84 -> 88 ;
89 [label=<gini = 0.075<br/>samples = 77<br/>value = [3, 74]>, fillcolor="#41a1e6"] ;
88 -> 89 ;
90 [label=<gini = 0.278<br/>samples = 12<br/>value = [2, 10]>, fillcolor="#61b1ea"] ;
88 -> 90 ;
91 [label=<capital-loss &le; 2161.5<br/>gini = 0.406<br/>samples = 60<br/>value = [43, 17]>, fillcolor="#efb387"] ;
83 -> 91 ;
92 [label=<gini = 0.0<br/>samples = 26<br/>value = [26, 0]>, fillcolor="#e58139"] ;
91 -> 92 ;
93 [label=<occupation &le; 3.5<br/>gini = 0.5<br/>samples = 34<br/>value = [17, 17]>, fillcolor="#ffffff"] ;
91 -> 93 ;
94 [label=<gini = 0.375<br/>samples = 12<br/>value = [3, 9]>, fillcolor="#7bbeee"] ;
93 -> 94 ;
95 [label=<gini = 0.463<br/>samples = 22<br/>value = [14, 8]>, fillcolor="#f4c9aa"] ;
93 -> 95 ;
96 [label=<hours-per-week &le; 31.0<br/>gini = 0.439<br/>samples = 3356<br/>value = [1094, 2262]>, fillcolor="#99ccf2"] ;
2 -> 96 ;
97 [label=<educational_num &le; 14.5<br/>gini = 0.434<br/>samples = 239<br/>value = [163, 76]>, fillcolor="#f1bc95"] ;
96 -> 97 ;
98 [label=<age &le; 32.5<br/>gini = 0.379<br/>samples = 189<br/>value = [141, 48]>, fillcolor="#eeac7c"] ;
97 -> 98 ;
99 [label=<educational_num &le; 13.5<br/>gini = 0.064<br/>samples = 30<br/>value = [29, 1]>, fillcolor="#e68540"] ;
98 -> 99 ;
100 [label=<gini = 0.0<br/>samples = 18<br/>value = [18, 0]>, fillcolor="#e58139"] ;
99 -> 100 ;
101 [label=<gini = 0.153<br/>samples = 12<br/>value = [11, 1]>, fillcolor="#e78c4b"] ;
99 -> 101 ;
102 [label=<fnlwgt &le; 177858.0<br/>gini = 0.416<br/>samples = 159<br/>value = [112, 47]>, fillcolor="#f0b68c"] ;
98 -> 102 ;
103 [label=<educational_num &le; 13.5<br/>gini = 0.35<br/>samples = 84<br/>value = [65, 19]>, fillcolor="#eda673"] ;
102 -> 103 ;
104 [label=<age &le; 71.0<br/>gini = 0.285<br/>samples = 64<br/>value = [53, 11]>, fillcolor="#ea9b62"] ;
103 -> 104 ;
105 [label=<gini = 0.348<br/>samples = 49<br/>value = [38, 11]>, fillcolor="#eda572"] ;
104 -> 105 ;
106 [label=<gini = 0.0<br/>samples = 15<br/>value = [15, 0]>, fillcolor="#e58139"] ;
104 -> 106 ;
107 [label=<hours-per-week &le; 15.0<br/>gini = 0.48<br/>samples = 20<br/>value = [12, 8]>, fillcolor="#f6d5bd"] ;
103 -> 107 ;
108 [label=<gini = 0.42<br/>samples = 10<br/>value = [7, 3]>, fillcolor="#f0b78e"] ;
107 -> 108 ;
109 [label=<gini = 0.5<br/>samples = 10<br/>value = [5, 5]>, fillcolor="#ffffff"] ;
107 -> 109 ;
110 [label=<occupation &le; 6.5<br/>gini = 0.468<br/>samples = 75<br/>value = [47, 28]>, fillcolor="#f4ccaf"] ;
102 -> 110 ;
111 [label=<gini = 0.291<br/>samples = 17<br/>value = [14, 3]>, fillcolor="#eb9c63"] ;
110 -> 111 ;
112 [label=<workclass &le; 4.5<br/>gini = 0.49<br/>samples = 58<br/>value = [33, 25]>, fillcolor="#f9e0cf"] ;
110 -> 112 ;
113 [label=<gini = 0.499<br/>samples = 44<br/>value = [23, 21]>, fillcolor="#fdf4ee"] ;
112 -> 113 ;
114 [label=<gini = 0.408<br/>samples = 14<br/>value = [10, 4]>, fillcolor="#efb388"] ;
112 -> 114 ;
115 [label=<hours-per-week &le; 23.5<br/>gini = 0.493<br/>samples = 50<br/>value = [22, 28]>, fillcolor="#d5eaf9"] ;
97 -> 115 ;
116 [label=<fnlwgt &le; 181626.0<br/>gini = 0.483<br/>samples = 27<br/>value = [16, 11]>, fillcolor="#f7d8c1"] ;
115 -> 116 ;
117 [label=<gini = 0.498<br/>samples = 15<br/>value = [7, 8]>, fillcolor="#e6f3fc"] ;
116 -> 117 ;
118 [label=<gini = 0.375<br/>samples = 12<br/>value = [9, 3]>, fillcolor="#eeab7b"] ;
116 -> 118 ;
119 [label=<age &le; 62.5<br/>gini = 0.386<br/>samples = 23<br/>value = [6, 17]>, fillcolor="#7fc0ee"] ;
115 -> 119 ;
120 [label=<gini = 0.278<br/>samples = 12<br/>value = [2, 10]>, fillcolor="#61b1ea"] ;
119 -> 120 ;
121 [label=<gini = 0.463<br/>samples = 11<br/>value = [4, 7]>, fillcolor="#aad5f4"] ;
119 -> 121 ;
122 [label=<capital-loss &le; 1794.0<br/>gini = 0.419<br/>samples = 3117<br/>value = [931, 2186]>, fillcolor="#8dc7f0"] ;
96 -> 122 ;
123 [label=<age &le; 28.5<br/>gini = 0.444<br/>samples = 2771<br/>value = [922, 1849]>, fillcolor="#9ccef2"] ;
122 -> 123 ;
124 [label=<fnlwgt &le; 62036.5<br/>gini = 0.478<br/>samples = 159<br/>value = [96, 63]>, fillcolor="#f6d4bb"] ;
123 -> 124 ;
125 [label=<fnlwgt &le; 43397.5<br/>gini = 0.308<br/>samples = 21<br/>value = [17, 4]>, fillcolor="#eb9f68"] ;
124 -> 125 ;
126 [label=<gini = 0.397<br/>samples = 11<br/>value = [8, 3]>, fillcolor="#efb083"] ;
125 -> 126 ;
127 [label=<gini = 0.18<br/>samples = 10<br/>value = [9, 1]>, fillcolor="#e88f4f"] ;
125 -> 127 ;
128 [label=<age &le; 24.5<br/>gini = 0.489<br/>samples = 138<br/>value = [79, 59]>, fillcolor="#f8dfcd"] ;
124 -> 128 ;
129 [label=<gini = 0.305<br/>samples = 16<br/>value = [13, 3]>, fillcolor="#eb9e67"] ;
128 -> 129 ;
130 [label=<hours-per-week &le; 56.5<br/>gini = 0.497<br/>samples = 122<br/>value = [66, 56]>, fillcolor="#fbece1"] ;
128 -> 130 ;
131 [label=<gini = 0.491<br/>samples = 106<br/>value = [60, 46]>, fillcolor="#f9e2d1"] ;
130 -> 131 ;
132 [label=<gini = 0.469<br/>samples = 16<br/>value = [6, 10]>, fillcolor="#b0d8f5"] ;
130 -> 132 ;
133 [label=<educational_num &le; 13.5<br/>gini = 0.432<br/>samples = 2612<br/>value = [826, 1786]>, fillcolor="#95caf1"] ;
123 -> 133 ;
134 [label=<workclass &le; 4.5<br/>gini = 0.459<br/>samples = 1646<br/>value = [586, 1060]>, fillcolor="#a6d3f3"] ;
133 -> 134 ;
135 [label=<hours-per-week &le; 41.5<br/>gini = 0.445<br/>samples = 1404<br/>value = [469, 935]>, fillcolor="#9ccef2"] ;
134 -> 135 ;
136 [label=<gini = 0.478<br/>samples = 690<br/>value = [272, 418]>, fillcolor="#baddf6"] ;
135 -> 136 ;
137 [label=<gini = 0.4<br/>samples = 714<br/>value = [197, 517]>, fillcolor="#84c2ef"] ;
135 -> 137 ;
138 [label=<workclass &le; 5.5<br/>gini = 0.499<br/>samples = 242<br/>value = [117, 125]>, fillcolor="#f2f9fd"] ;
134 -> 138 ;
139 [label=<gini = 0.496<br/>samples = 161<br/>value = [88, 73]>, fillcolor="#fbeadd"] ;
138 -> 139 ;
140 [label=<gini = 0.46<br/>samples = 81<br/>value = [29, 52]>, fillcolor="#a7d4f4"] ;
138 -> 140 ;
141 [label=<capital-gain &le; 1114.0<br/>gini = 0.373<br/>samples = 966<br/>value = [240, 726]>, fillcolor="#7abdee"] ;
133 -> 141 ;
142 [label=<occupation &le; 2.5<br/>gini = 0.362<br/>samples = 942<br/>value = [224, 718]>, fillcolor="#77bced"] ;
141 -> 142 ;
143 [label=<gini = 0.493<br/>samples = 43<br/>value = [19, 24]>, fillcolor="#d6ebfa"] ;
142 -> 143 ;
144 [label=<gini = 0.352<br/>samples = 899<br/>value = [205, 694]>, fillcolor="#73baed"] ;
142 -> 144 ;
145 [label=<age &le; 50.5<br/>gini = 0.444<br/>samples = 24<br/>value = [16, 8]>, fillcolor="#f2c09c"] ;
141 -> 145 ;
146 [label=<gini = 0.375<br/>samples = 12<br/>value = [9, 3]>, fillcolor="#eeab7b"] ;
145 -> 146 ;
147 [label=<gini = 0.486<br/>samples = 12<br/>value = [7, 5]>, fillcolor="#f8dbc6"] ;
145 -> 147 ;
148 [label=<capital-loss &le; 1989.5<br/>gini = 0.051<br/>samples = 346<br/>value = [9, 337]>, fillcolor="#3ea0e6"] ;
122 -> 148 ;
149 [label=<workclass &le; 0.5<br/>gini = 0.007<br/>samples = 288<br/>value = [1, 287]>, fillcolor="#3a9de5"] ;
148 -> 149 ;
150 [label=<gini = 0.142<br/>samples = 13<br/>value = [1, 12]>, fillcolor="#49a5e7"] ;
149 -> 150 ;
151 [label=<gini = 0.0<br/>samples = 275<br/>value = [0, 275]>, fillcolor="#399de5"] ;
149 -> 151 ;
152 [label=<fnlwgt &le; 151113.5<br/>gini = 0.238<br/>samples = 58<br/>value = [8, 50]>, fillcolor="#59ade9"] ;
148 -> 152 ;
153 [label=<gini = 0.43<br/>samples = 16<br/>value = [5, 11]>, fillcolor="#93caf1"] ;
152 -> 153 ;
154 [label=<fnlwgt &le; 318406.0<br/>gini = 0.133<br/>samples = 42<br/>value = [3, 39]>, fillcolor="#48a5e7"] ;
152 -> 154 ;
155 [label=<capital-loss &le; 2403.5<br/>gini = 0.061<br/>samples = 32<br/>value = [1, 31]>, fillcolor="#3fa0e6"] ;
154 -> 155 ;
156 [label=<gini = 0.142<br/>samples = 13<br/>value = [1, 12]>, fillcolor="#49a5e7"] ;
155 -> 156 ;
157 [label=<gini = 0.0<br/>samples = 19<br/>value = [0, 19]>, fillcolor="#399de5"] ;
155 -> 157 ;
158 [label=<gini = 0.32<br/>samples = 10<br/>value = [2, 8]>, fillcolor="#6ab6ec"] ;
154 -> 158 ;
159 [label=<relationship &le; 4.5<br/>gini = 0.145<br/>samples = 18861<br/>value = [17374, 1487]>, fillcolor="#e78c4a"] ;
1 -> 159 ;
160 [label=<hours-per-week &le; 44.5<br/>gini = 0.095<br/>samples = 17422<br/>value = [16553, 869]>, fillcolor="#e68843"] ;
159 -> 160 ;
161 [label=<capital-loss &le; 2218.5<br/>gini = 0.055<br/>samples = 14064<br/>value = [13669, 395]>, fillcolor="#e6853f"] ;
160 -> 161 ;
162 [label=<capital-gain &le; 4668.5<br/>gini = 0.051<br/>samples = 14004<br/>value = [13640, 364]>, fillcolor="#e6843e"] ;
161 -> 162 ;
163 [label=<educational_num &le; 13.5<br/>gini = 0.048<br/>samples = 13974<br/>value = [13627, 347]>, fillcolor="#e6843e"] ;
162 -> 163 ;
164 [label=<age &le; 34.5<br/>gini = 0.038<br/>samples = 13424<br/>value = [13163, 261]>, fillcolor="#e6833d"] ;
163 -> 164 ;
165 [label=<age &le; 26.5<br/>gini = 0.013<br/>samples = 8214<br/>value = [8160, 54]>, fillcolor="#e5823a"] ;
164 -> 165 ;
166 [label=<gini = 0.004<br/>samples = 5547<br/>value = [5535, 12]>, fillcolor="#e58139"] ;
165 -> 166 ;
167 [label=<gini = 0.031<br/>samples = 2667<br/>value = [2625, 42]>, fillcolor="#e5833c"] ;
165 -> 167 ;
168 [label=<educational_num &le; 12.5<br/>gini = 0.076<br/>samples = 5210<br/>value = [5003, 207]>, fillcolor="#e68641"] ;
164 -> 168 ;
169 [label=<gini = 0.056<br/>samples = 4543<br/>value = [4413, 130]>, fillcolor="#e6853f"] ;
168 -> 169 ;
170 [label=<gini = 0.204<br/>samples = 667<br/>value = [590, 77]>, fillcolor="#e89153"] ;
168 -> 170 ;
171 [label=<educational_num &le; 14.5<br/>gini = 0.264<br/>samples = 550<br/>value = [464, 86]>, fillcolor="#ea985e"] ;
163 -> 171 ;
172 [label=<age &le; 47.5<br/>gini = 0.211<br/>samples = 433<br/>value = [381, 52]>, fillcolor="#e99254"] ;
171 -> 172 ;
173 [label=<gini = 0.147<br/>samples = 313<br/>value = [288, 25]>, fillcolor="#e78c4a"] ;
172 -> 173 ;
174 [label=<gini = 0.349<br/>samples = 120<br/>value = [93, 27]>, fillcolor="#eda672"] ;
172 -> 174 ;
175 [label=<age &le; 31.5<br/>gini = 0.412<br/>samples = 117<br/>value = [83, 34]>, fillcolor="#f0b58a"] ;
171 -> 175 ;
176 [label=<gini = 0.0<br/>samples = 27<br/>value = [27, 0]>, fillcolor="#e58139"] ;
175 -> 176 ;
177 [label=<gini = 0.47<br/>samples = 90<br/>value = [56, 34]>, fillcolor="#f5ceb1"] ;
175 -> 177 ;
178 [label=<capital-gain &le; 4826.0<br/>gini = 0.491<br/>samples = 30<br/>value = [13, 17]>, fillcolor="#d0e8f9"] ;
162 -> 178 ;
179 [label=<gini = 0.0<br/>samples = 13<br/>value = [0, 13]>, fillcolor="#399de5"] ;
178 -> 179 ;
180 [label=<gini = 0.36<br/>samples = 17<br/>value = [13, 4]>, fillcolor="#eda876"] ;
178 -> 180 ;
181 [label=<educational_num &le; 9.5<br/>gini = 0.499<br/>samples = 60<br/>value = [29, 31]>, fillcolor="#f2f9fd"] ;
161 -> 181 ;
182 [label=<age &le; 52.0<br/>gini = 0.386<br/>samples = 23<br/>value = [17, 6]>, fillcolor="#eead7f"] ;
181 -> 182 ;
183 [label=<gini = 0.473<br/>samples = 13<br/>value = [8, 5]>, fillcolor="#f5d0b5"] ;
182 -> 183 ;
184 [label=<gini = 0.18<br/>samples = 10<br/>value = [9, 1]>, fillcolor="#e88f4f"] ;
182 -> 184 ;
185 [label=<capital-loss &le; 2365.5<br/>gini = 0.438<br/>samples = 37<br/>value = [12, 25]>, fillcolor="#98ccf1"] ;
181 -> 185 ;
186 [label=<gini = 0.494<br/>samples = 18<br/>value = [10, 8]>, fillcolor="#fae6d7"] ;
185 -> 186 ;
187 [label=<gini = 0.188<br/>samples = 19<br/>value = [2, 17]>, fillcolor="#50a9e8"] ;
185 -> 187 ;
188 [label=<capital-loss &le; 2391.5<br/>gini = 0.242<br/>samples = 3358<br/>value = [2884, 474]>, fillcolor="#e9965a"] ;
160 -> 188 ;
189 [label=<educational_num &le; 12.5<br/>gini = 0.233<br/>samples = 3332<br/>value = [2883, 449]>, fillcolor="#e99558"] ;
188 -> 189 ;
190 [label=<age &le; 38.5<br/>gini = 0.135<br/>samples = 2256<br/>value = [2092, 164]>, fillcolor="#e78b49"] ;
189 -> 190 ;
191 [label=<age &le; 25.5<br/>gini = 0.085<br/>samples = 1462<br/>value = [1397, 65]>, fillcolor="#e68742"] ;
190 -> 191 ;
192 [label=<marital-status &le; 2.5<br/>gini = 0.024<br/>samples = 496<br/>value = [490, 6]>, fillcolor="#e5833b"] ;
191 -> 192 ;
193 [label=<gini = 0.114<br/>samples = 33<br/>value = [31, 2]>, fillcolor="#e78946"] ;
192 -> 193 ;
194 [label=<gini = 0.017<br/>samples = 463<br/>value = [459, 4]>, fillcolor="#e5823b"] ;
192 -> 194 ;
195 [label=<relationship &le; 2.5<br/>gini = 0.115<br/>samples = 966<br/>value = [907, 59]>, fillcolor="#e78946"] ;
191 -> 195 ;
196 [label=<gini = 0.148<br/>samples = 647<br/>value = [595, 52]>, fillcolor="#e78c4a"] ;
195 -> 196 ;
197 [label=<gini = 0.043<br/>samples = 319<br/>value = [312, 7]>, fillcolor="#e6843d"] ;
195 -> 197 ;
198 [label=<educational_num &le; 9.5<br/>gini = 0.218<br/>samples = 794<br/>value = [695, 99]>, fillcolor="#e99355"] ;
190 -> 198 ;
199 [label=<age &le; 51.5<br/>gini = 0.148<br/>samples = 435<br/>value = [400, 35]>, fillcolor="#e78c4a"] ;
198 -> 199 ;
200 [label=<gini = 0.1<br/>samples = 283<br/>value = [268, 15]>, fillcolor="#e68844"] ;
199 -> 200 ;
201 [label=<gini = 0.229<br/>samples = 152<br/>value = [132, 20]>, fillcolor="#e99457"] ;
199 -> 201 ;
202 [label=<gender &le; 0.5<br/>gini = 0.293<br/>samples = 359<br/>value = [295, 64]>, fillcolor="#eb9c64"] ;
198 -> 202 ;
203 [label=<gini = 0.197<br/>samples = 181<br/>value = [161, 20]>, fillcolor="#e89152"] ;
202 -> 203 ;
204 [label=<gini = 0.372<br/>samples = 178<br/>value = [134, 44]>, fillcolor="#eeaa7a"] ;
202 -> 204 ;
205 [label=<age &le; 27.5<br/>gini = 0.389<br/>samples = 1076<br/>value = [791, 285]>, fillcolor="#eeae80"] ;
189 -> 205 ;
206 [label=<hours-per-week &le; 62.5<br/>gini = 0.084<br/>samples = 205<br/>value = [196, 9]>, fillcolor="#e68742"] ;
205 -> 206 ;
207 [label=<age &le; 24.5<br/>gini = 0.053<br/>samples = 183<br/>value = [178, 5]>, fillcolor="#e6853f"] ;
206 -> 207 ;
208 [label=<gini = 0.0<br/>samples = 69<br/>value = [69, 0]>, fillcolor="#e58139"] ;
207 -> 208 ;
209 [label=<gini = 0.084<br/>samples = 114<br/>value = [109, 5]>, fillcolor="#e68742"] ;
207 -> 209 ;
210 [label=<gender &le; 0.5<br/>gini = 0.298<br/>samples = 22<br/>value = [18, 4]>, fillcolor="#eb9d65"] ;
206 -> 210 ;
211 [label=<gini = 0.18<br/>samples = 10<br/>value = [9, 1]>, fillcolor="#e88f4f"] ;
210 -> 211 ;
212 [label=<gini = 0.375<br/>samples = 12<br/>value = [9, 3]>, fillcolor="#eeab7b"] ;
210 -> 212 ;
213 [label=<educational_num &le; 14.5<br/>gini = 0.433<br/>samples = 871<br/>value = [595, 276]>, fillcolor="#f1bb95"] ;
205 -> 213 ;
214 [label=<fnlwgt &le; 120523.5<br/>gini = 0.411<br/>samples = 758<br/>value = [539, 219]>, fillcolor="#f0b489"] ;
213 -> 214 ;
215 [label=<gini = 0.341<br/>samples = 225<br/>value = [176, 49]>, fillcolor="#eca470"] ;
214 -> 215 ;
216 [label=<gini = 0.434<br/>samples = 533<br/>value = [363, 170]>, fillcolor="#f1bc96"] ;
214 -> 216 ;
217 [label=<age &le; 32.5<br/>gini = 0.5<br/>samples = 113<br/>value = [56, 57]>, fillcolor="#fcfdff"] ;
213 -> 217 ;
218 [label=<gini = 0.291<br/>samples = 34<br/>value = [28, 6]>, fillcolor="#eb9c63"] ;
217 -> 218 ;
219 [label=<gini = 0.458<br/>samples = 79<br/>value = [28, 51]>, fillcolor="#a6d3f3"] ;
217 -> 219 ;
220 [label=<educational_num &le; 11.0<br/>gini = 0.074<br/>samples = 26<br/>value = [1, 25]>, fillcolor="#41a1e6"] ;
188 -> 220 ;
221 [label=<gini = 0.18<br/>samples = 10<br/>value = [1, 9]>, fillcolor="#4fa8e8"] ;
220 -> 221 ;
222 [label=<gini = 0.0<br/>samples = 16<br/>value = [0, 16]>, fillcolor="#399de5"] ;
220 -> 222 ;
223 [label=<educational_num &le; 10.5<br/>gini = 0.49<br/>samples = 1439<br/>value = [821, 618]>, fillcolor="#f9e0ce"] ;
159 -> 223 ;
224 [label=<occupation &le; 3.5<br/>gini = 0.424<br/>samples = 894<br/>value = [621, 273]>, fillcolor="#f0b890"] ;
223 -> 224 ;
225 [label=<age &le; 29.5<br/>gini = 0.494<br/>samples = 368<br/>value = [204, 164]>, fillcolor="#fae6d8"] ;
224 -> 225 ;
226 [label=<fnlwgt &le; 221819.0<br/>gini = 0.31<br/>samples = 73<br/>value = [59, 14]>, fillcolor="#eb9f68"] ;
225 -> 226 ;
227 [label=<age &le; 24.5<br/>gini = 0.233<br/>samples = 52<br/>value = [45, 7]>, fillcolor="#e99558"] ;
226 -> 227 ;
228 [label=<gini = 0.0<br/>samples = 17<br/>value = [17, 0]>, fillcolor="#e58139"] ;
227 -> 228 ;
229 [label=<age &le; 26.5<br/>gini = 0.32<br/>samples = 35<br/>value = [28, 7]>, fillcolor="#eca06a"] ;
227 -> 229 ;
230 [label=<gini = 0.245<br/>samples = 14<br/>value = [12, 2]>, fillcolor="#e9965a"] ;
229 -> 230 ;
231 [label=<gini = 0.363<br/>samples = 21<br/>value = [16, 5]>, fillcolor="#eda877"] ;
229 -> 231 ;
232 [label=<fnlwgt &le; 307169.0<br/>gini = 0.444<br/>samples = 21<br/>value = [14, 7]>, fillcolor="#f2c09c"] ;
226 -> 232 ;
233 [label=<gini = 0.5<br/>samples = 10<br/>value = [5, 5]>, fillcolor="#ffffff"] ;
232 -> 233 ;
234 [label=<gini = 0.298<br/>samples = 11<br/>value = [9, 2]>, fillcolor="#eb9d65"] ;
232 -> 234 ;
235 [label=<educational_num &le; 8.5<br/>gini = 0.5<br/>samples = 295<br/>value = [145, 150]>, fillcolor="#f8fcfe"] ;
225 -> 235 ;
236 [label=<gini = 0.305<br/>samples = 16<br/>value = [13, 3]>, fillcolor="#eb9e67"] ;
235 -> 236 ;
237 [label=<capital-loss &le; 1813.5<br/>gini = 0.499<br/>samples = 279<br/>value = [132, 147]>, fillcolor="#ebf5fc"] ;
235 -> 237 ;
238 [label=<workclass &le; 0.5<br/>gini = 0.5<br/>samples = 267<br/>value = [131, 136]>, fillcolor="#f8fbfe"] ;
237 -> 238 ;
239 [label=<gini = 0.305<br/>samples = 16<br/>value = [3, 13]>, fillcolor="#67b4eb"] ;
238 -> 239 ;
240 [label=<gini = 0.5<br/>samples = 251<br/>value = [128, 123]>, fillcolor="#fefaf7"] ;
238 -> 240 ;
241 [label=<gini = 0.153<br/>samples = 12<br/>value = [1, 11]>, fillcolor="#4ba6e7"] ;
237 -> 241 ;
242 [label=<hours-per-week &le; 39.5<br/>gini = 0.329<br/>samples = 526<br/>value = [417, 109]>, fillcolor="#eca26d"] ;
224 -> 242 ;
243 [label=<workclass &le; 3.5<br/>gini = 0.216<br/>samples = 211<br/>value = [185, 26]>, fillcolor="#e99355"] ;
242 -> 243 ;
244 [label=<native-country &le; 24.0<br/>gini = 0.185<br/>samples = 184<br/>value = [165, 19]>, fillcolor="#e89050"] ;
243 -> 244 ;
245 [label=<gini = 0.391<br/>samples = 15<br/>value = [11, 4]>, fillcolor="#eeaf81"] ;
244 -> 245 ;
246 [label=<fnlwgt &le; 161255.5<br/>gini = 0.162<br/>samples = 169<br/>value = [154, 15]>, fillcolor="#e88d4c"] ;
244 -> 246 ;
247 [label=<gini = 0.236<br/>samples = 73<br/>value = [63, 10]>, fillcolor="#e99558"] ;
246 -> 247 ;
248 [label=<gini = 0.099<br/>samples = 96<br/>value = [91, 5]>, fillcolor="#e68844"] ;
246 -> 248 ;
249 [label=<hours-per-week &le; 22.0<br/>gini = 0.384<br/>samples = 27<br/>value = [20, 7]>, fillcolor="#eead7e"] ;
243 -> 249 ;
250 [label=<gini = 0.208<br/>samples = 17<br/>value = [15, 2]>, fillcolor="#e89253"] ;
249 -> 250 ;
251 [label=<gini = 0.5<br/>samples = 10<br/>value = [5, 5]>, fillcolor="#ffffff"] ;
249 -> 251 ;
252 [label=<race &le; 3.5<br/>gini = 0.388<br/>samples = 315<br/>value = [232, 83]>, fillcolor="#eeae80"] ;
242 -> 252 ;
253 [label=<fnlwgt &le; 86124.0<br/>gini = 0.21<br/>samples = 67<br/>value = [59, 8]>, fillcolor="#e99254"] ;
252 -> 253 ;
254 [label=<gini = 0.0<br/>samples = 14<br/>value = [14, 0]>, fillcolor="#e58139"] ;
253 -> 254 ;
255 [label=<fnlwgt &le; 238485.5<br/>gini = 0.256<br/>samples = 53<br/>value = [45, 8]>, fillcolor="#ea975c"] ;
253 -> 255 ;
256 [label=<gini = 0.308<br/>samples = 42<br/>value = [34, 8]>, fillcolor="#eb9f68"] ;
255 -> 256 ;
257 [label=<gini = 0.0<br/>samples = 11<br/>value = [11, 0]>, fillcolor="#e58139"] ;
255 -> 257 ;
258 [label=<occupation &le; 8.5<br/>gini = 0.422<br/>samples = 248<br/>value = [173, 75]>, fillcolor="#f0b88f"] ;
252 -> 258 ;
259 [label=<educational_num &le; 8.5<br/>gini = 0.285<br/>samples = 122<br/>value = [101, 21]>, fillcolor="#ea9b62"] ;
258 -> 259 ;
260 [label=<gini = 0.145<br/>samples = 38<br/>value = [35, 3]>, fillcolor="#e78c4a"] ;
259 -> 260 ;
261 [label=<gini = 0.337<br/>samples = 84<br/>value = [66, 18]>, fillcolor="#eca36f"] ;
259 -> 261 ;
262 [label=<educational_num &le; 7.5<br/>gini = 0.49<br/>samples = 126<br/>value = [72, 54]>, fillcolor="#f8e0ce"] ;
258 -> 262 ;
263 [label=<gini = 0.0<br/>samples = 15<br/>value = [15, 0]>, fillcolor="#e58139"] ;
262 -> 263 ;
264 [label=<gini = 0.5<br/>samples = 111<br/>value = [57, 54]>, fillcolor="#fef8f5"] ;
262 -> 264 ;
265 [label=<educational_num &le; 13.5<br/>gini = 0.465<br/>samples = 545<br/>value = [200, 345]>, fillcolor="#acd6f4"] ;
223 -> 265 ;
266 [label=<capital-loss &le; 1794.0<br/>gini = 0.484<br/>samples = 418<br/>value = [172, 246]>, fillcolor="#c3e2f7"] ;
265 -> 266 ;
267 [label=<age &le; 24.5<br/>gini = 0.492<br/>samples = 393<br/>value = [172, 221]>, fillcolor="#d3e9f9"] ;
266 -> 267 ;
268 [label=<gini = 0.198<br/>samples = 18<br/>value = [16, 2]>, fillcolor="#e89152"] ;
267 -> 268 ;
269 [label=<race &le; 2.5<br/>gini = 0.486<br/>samples = 375<br/>value = [156, 219]>, fillcolor="#c6e3f8"] ;
267 -> 269 ;
270 [label=<fnlwgt &le; 132616.5<br/>gini = 0.488<br/>samples = 57<br/>value = [33, 24]>, fillcolor="#f8ddc9"] ;
269 -> 270 ;
271 [label=<gini = 0.488<br/>samples = 19<br/>value = [8, 11]>, fillcolor="#c9e4f8"] ;
270 -> 271 ;
272 [label=<gini = 0.45<br/>samples = 38<br/>value = [25, 13]>, fillcolor="#f3c3a0"] ;
270 -> 272 ;
273 [label=<hours-per-week &le; 44.5<br/>gini = 0.474<br/>samples = 318<br/>value = [123, 195]>, fillcolor="#b6dbf5"] ;
269 -> 273 ;
274 [label=<gini = 0.488<br/>samples = 251<br/>value = [106, 145]>, fillcolor="#cae5f8"] ;
273 -> 274 ;
275 [label=<gini = 0.379<br/>samples = 67<br/>value = [17, 50]>, fillcolor="#7cbeee"] ;
273 -> 275 ;
276 [label=<gini = 0.0<br/>samples = 25<br/>value = [0, 25]>, fillcolor="#399de5"] ;
266 -> 276 ;
277 [label=<fnlwgt &le; 52361.5<br/>gini = 0.344<br/>samples = 127<br/>value = [28, 99]>, fillcolor="#71b9ec"] ;
265 -> 277 ;
278 [label=<gini = 0.142<br/>samples = 13<br/>value = [1, 12]>, fillcolor="#49a5e7"] ;
277 -> 278 ;
279 [label=<workclass &le; 3.5<br/>gini = 0.361<br/>samples = 114<br/>value = [27, 87]>, fillcolor="#76bbed"] ;
277 -> 279 ;
280 [label=<workclass &le; 2.0<br/>gini = 0.404<br/>samples = 89<br/>value = [25, 64]>, fillcolor="#86c3ef"] ;
279 -> 280 ;
281 [label=<fnlwgt &le; 171803.0<br/>gini = 0.234<br/>samples = 37<br/>value = [5, 32]>, fillcolor="#58ace9"] ;
280 -> 281 ;
282 [label=<gini = 0.117<br/>samples = 16<br/>value = [1, 15]>, fillcolor="#46a4e7"] ;
281 -> 282 ;
283 [label=<gini = 0.308<br/>samples = 21<br/>value = [4, 17]>, fillcolor="#68b4eb"] ;
281 -> 283 ;
284 [label=<educational_num &le; 14.5<br/>gini = 0.473<br/>samples = 52<br/>value = [20, 32]>, fillcolor="#b5daf5"] ;
280 -> 284 ;
285 [label=<gini = 0.465<br/>samples = 38<br/>value = [14, 24]>, fillcolor="#acd6f4"] ;
284 -> 285 ;
286 [label=<gini = 0.49<br/>samples = 14<br/>value = [6, 8]>, fillcolor="#cee6f8"] ;
284 -> 286 ;
287 [label=<age &le; 39.5<br/>gini = 0.147<br/>samples = 25<br/>value = [2, 23]>, fillcolor="#4aa6e7"] ;
279 -> 287 ;
288 [label=<gini = 0.18<br/>samples = 10<br/>value = [1, 9]>, fillcolor="#4fa8e8"] ;
287 -> 288 ;
289 [label=<gini = 0.124<br/>samples = 15<br/>value = [1, 14]>, fillcolor="#47a4e7"] ;
287 -> 289 ;
290 [label=<relationship &le; 0.5<br/>gini = 0.099<br/>samples = 1578<br/>value = [82, 1496]>, fillcolor="#44a2e6"] ;
0 -> 290 [labeldistance=2.5, labelangle=-45, headlabel="False"] ;
291 [label=<age &le; 61.5<br/>gini = 0.02<br/>samples = 1071<br/>value = [11, 1060]>, fillcolor="#3b9ee5"] ;
290 -> 291 ;
292 [label=<gini = 0.0<br/>samples = 948<br/>value = [0, 948]>, fillcolor="#399de5"] ;
291 -> 292 ;
293 [label=<capital-gain &le; 10585.5<br/>gini = 0.163<br/>samples = 123<br/>value = [11, 112]>, fillcolor="#4ca7e8"] ;
291 -> 293 ;
294 [label=<capital-gain &le; 6640.5<br/>gini = 0.285<br/>samples = 58<br/>value = [10, 48]>, fillcolor="#62b1ea"] ;
293 -> 294 ;
295 [label=<gini = 0.0<br/>samples = 19<br/>value = [0, 19]>, fillcolor="#399de5"] ;
294 -> 295 ;
296 [label=<fnlwgt &le; 86382.5<br/>gini = 0.381<br/>samples = 39<br/>value = [10, 29]>, fillcolor="#7dbfee"] ;
294 -> 296 ;
297 [label=<gini = 0.18<br/>samples = 10<br/>value = [1, 9]>, fillcolor="#4fa8e8"] ;
296 -> 297 ;
298 [label=<age &le; 65.5<br/>gini = 0.428<br/>samples = 29<br/>value = [9, 20]>, fillcolor="#92c9f1"] ;
296 -> 298 ;
299 [label=<gini = 0.26<br/>samples = 13<br/>value = [2, 11]>, fillcolor="#5dafea"] ;
298 -> 299 ;
300 [label=<gini = 0.492<br/>samples = 16<br/>value = [7, 9]>, fillcolor="#d3e9f9"] ;
298 -> 300 ;
301 [label=<fnlwgt &le; 251938.5<br/>gini = 0.03<br/>samples = 65<br/>value = [1, 64]>, fillcolor="#3c9fe5"] ;
293 -> 301 ;
302 [label=<gini = 0.0<br/>samples = 55<br/>value = [0, 55]>, fillcolor="#399de5"] ;
301 -> 302 ;
303 [label=<gini = 0.18<br/>samples = 10<br/>value = [1, 9]>, fillcolor="#4fa8e8"] ;
301 -> 303 ;
304 [label=<capital-gain &le; 7073.5<br/>gini = 0.241<br/>samples = 507<br/>value = [71, 436]>, fillcolor="#59ade9"] ;
290 -> 304 ;
305 [label=<relationship &le; 4.5<br/>gini = 0.317<br/>samples = 71<br/>value = [57, 14]>, fillcolor="#eba06a"] ;
304 -> 305 ;
306 [label=<capital-gain &le; 6228.5<br/>gini = 0.095<br/>samples = 60<br/>value = [57, 3]>, fillcolor="#e68843"] ;
305 -> 306 ;
307 [label=<gini = 0.291<br/>samples = 17<br/>value = [14, 3]>, fillcolor="#eb9c63"] ;
306 -> 307 ;
308 [label=<gini = 0.0<br/>samples = 43<br/>value = [43, 0]>, fillcolor="#e58139"] ;
306 -> 308 ;
309 [label=<gini = 0.0<br/>samples = 11<br/>value = [0, 11]>, fillcolor="#399de5"] ;
305 -> 309 ;
310 [label=<hours-per-week &le; 35.5<br/>gini = 0.062<br/>samples = 436<br/>value = [14, 422]>, fillcolor="#40a0e6"] ;
304 -> 310 ;
311 [label=<age &le; 34.5<br/>gini = 0.227<br/>samples = 69<br/>value = [9, 60]>, fillcolor="#57ace9"] ;
310 -> 311 ;
312 [label=<gini = 0.475<br/>samples = 18<br/>value = [7, 11]>, fillcolor="#b7dbf6"] ;
311 -> 312 ;
313 [label=<age &le; 62.5<br/>gini = 0.075<br/>samples = 51<br/>value = [2, 49]>, fillcolor="#41a1e6"] ;
311 -> 313 ;
314 [label=<gini = 0.0<br/>samples = 41<br/>value = [0, 41]>, fillcolor="#399de5"] ;
313 -> 314 ;
315 [label=<gini = 0.32<br/>samples = 10<br/>value = [2, 8]>, fillcolor="#6ab6ec"] ;
313 -> 315 ;
316 [label=<capital-gain &le; 7565.5<br/>gini = 0.027<br/>samples = 367<br/>value = [5, 362]>, fillcolor="#3c9ee5"] ;
310 -> 316 ;
317 [label=<educational_num &le; 10.5<br/>gini = 0.191<br/>samples = 28<br/>value = [3, 25]>, fillcolor="#51a9e8"] ;
316 -> 317 ;
318 [label=<gini = 0.291<br/>samples = 17<br/>value = [3, 14]>, fillcolor="#63b2eb"] ;
317 -> 318 ;
319 [label=<gini = 0.0<br/>samples = 11<br/>value = [0, 11]>, fillcolor="#399de5"] ;
317 -> 319 ;
320 [label=<fnlwgt &le; 43136.0<br/>gini = 0.012<br/>samples = 339<br/>value = [2, 337]>, fillcolor="#3a9ee5"] ;
316 -> 320 ;
321 [label=<gini = 0.18<br/>samples = 10<br/>value = [1, 9]>, fillcolor="#4fa8e8"] ;
320 -> 321 ;
322 [label=<capital-gain &le; 30961.5<br/>gini = 0.006<br/>samples = 329<br/>value = [1, 328]>, fillcolor="#3a9de5"] ;
320 -> 322 ;
323 [label=<gini = 0.0<br/>samples = 301<br/>value = [0, 301]>, fillcolor="#399de5"] ;
322 -> 323 ;
324 [label=<educational_num &le; 11.0<br/>gini = 0.069<br/>samples = 28<br/>value = [1, 27]>, fillcolor="#40a1e6"] ;
322 -> 324 ;
325 [label=<gini = 0.18<br/>samples = 10<br/>value = [1, 9]>, fillcolor="#4fa8e8"] ;
324 -> 325 ;
326 [label=<gini = 0.0<br/>samples = 18<br/>value = [0, 18]>, fillcolor="#399de5"] ;
324 -> 326 ;
}